-0.7650 -0.6725 0.5609 -2.6207 -0.5016 -0.3700 -0.4169 -0.6242 0.4990 -0.6375 -0.4042 -0.4735 0.0796 -0.6493 -0.0322 -0.6109 0.4069 1.0393 -1.0911 0.6478 -0.6120 -1.0111 -0.8887 1.2057 0.3498 0.6778 1.2680 -0.9793 0.3661 0.9755 1.6822 
0.3910 -0.1224 -0.9616 0.4286 -0.0137 0.3106 0.4421 0.0464 -1.7850 -0.0127 0.1404 0.0374 -0.3675 -0.0505 -1.8343 0.5673 0.0703 0.5038 0.6489 0.5429 -0.0514 -0.1212 0.1823 -1.3805 -1.3902 -1.4626 -0.5171 0.2177 0.4973 -1.8524 -1.1900 
-0.6421 -0.3277 -0.2179 -0.0506 -0.4794 -0.2292 0.5478 -0.4456 0.9961 -0.4173 -0.0451 -0.3459 -1.5229 -0.4249 0.5312 1.1919 0.0796 0.5840 1.1132 -0.1905 -0.4233 -0.2520 -0.5210 1.0767 -1.6338 -2.0626 0.7341 0.0120 -0.7747 0.8018 0.4018 
-0.4736 -0.4357 -1.0044 0.6967 -0.2141 -0.1243 0.4831 -0.4514 -1.5650 -0.2701 -0.0912 -0.2998 -0.7994 -0.4014 0.4102 -0.8359 0.0130 0.5364 0.9800 -2.7189 -0.2689 0.0125 -0.2336 -0.3493 0.7134 -0.3338 1.3611 -0.2274 0.3932 0.3237 0.9154 
-0.1144 -0.1115 -0.1653 0.6548 -0.2220 0.8082 -1.0940 -0.0976 -0.1471 -0.2463 -0.4024 -0.3517 0.7430 -0.1325 -0.2358 0.1105 -1.3052 -2.3739 -1.3740 -0.1283 -0.2381 -0.1930 -0.1723 0.7614 0.4283 -0.1205 -1.3900 -0.3306 -0.7400 1.8204 -0.4791 
-0.0533 -0.1621 0.7090 -1.1159 -0.1040 0.0216 -0.6059 -0.2102 -0.8791 -0.0917 -0.1862 -0.2001 0.3528 -0.1013 -0.3067 -1.0754 0.6271 0.6747 -1.0843 -1.2186 -0.1932 -0.3454 -0.1287 -0.8839 0.2416 0.6285 0.4919 0.2387 0.7755 0.4519 -1.7634 
-0.4714 -0.4718 0.7596 0.0954 -0.3785 0.1156 0.4398 -0.3447 0.2950 -0.3802 -0.1875 -0.3770 0.6039 -0.5785 0.0235 1.1676 0.3648 0.5735 -1.6729 0.0407 -0.2968 -0.0671 -0.3637 1.2336 -2.6039 0.3715 -1.1858 -1.0386 -0.3330 1.0272 -1.8912 
0.0618 -0.0028 -0.0572 -0.3922 -0.0230 -2.3758 -0.7097 0.0274 0.2113 -0.1652 -1.1434 0.1534 -1.1747 0.0223 0.0763 0.0795 -0.9028 -1.2605 1.4061 0.3543 -0.0576 -0.0258 -0.0450 -0.2845 0.7466 0.1231 -0.2575 0.1161 -0.8499 -1.3691 1.1871 
-0.7668 -0.4691 -1.9123 0.0730 -0.2841 0.0877 0.5559 -0.3278 1.4384 -0.2814 0.0077 -0.5124 0.4055 -0.5591 0.3160 -0.9466 1.1255 0.9067 0.3273 0.1545 -0.4536 -0.4383 -0.4391 -1.8448 0.9620 0.3614 -1.0523 -0.0153 -0.1630 0.2754 -1.6251 
-0.2097 -0.0079 -0.2263 0.4522 -0.1757 0.4595 -0.4178 0.0045 -0.0133 -0.0224 0.8398 -0.0444 0.3570 -0.0918 0.0637 -1.3250 -1.1719 -1.4143 -1.1756 -0.0861 -0.0825 -0.1553 -0.0721 -0.5071 0.6378 0.2762 -1.0778 -0.0230 -0.8467 -1.9588 0.2921 
